FANN_FLO_2.1
num_layers=3
learning_rate=0.700000
connection_rate=1.000000
network_type=0
learning_momentum=0.000000
training_algorithm=2
train_error_function=1
train_stop_function=0
cascade_output_change_fraction=0.010000
quickprop_decay=-0.000100
quickprop_mu=1.750000
rprop_increase_factor=1.200000
rprop_decrease_factor=0.500000
rprop_delta_min=0.000000
rprop_delta_max=50.000000
rprop_delta_zero=0.100000
cascade_output_stagnation_epochs=12
cascade_candidate_change_fraction=0.010000
cascade_candidate_stagnation_epochs=12
cascade_max_out_epochs=150
cascade_min_out_epochs=50
cascade_max_cand_epochs=150
cascade_min_cand_epochs=50
cascade_num_candidate_groups=2
bit_fail_limit=3.49999994039535522461e-01
cascade_candidate_limit=1.00000000000000000000e+03
cascade_weight_multiplier=4.00000005960464477539e-01
cascade_activation_functions_count=10
cascade_activation_functions=3 5 7 8 10 11 14 15 16 17 
cascade_activation_steepnesses_count=4
cascade_activation_steepnesses=2.50000000000000000000e-01 5.00000000000000000000e-01 7.50000000000000000000e-01 1.00000000000000000000e+00 
layer_sizes=9 24 2 
scale_included=0
neurons (num_inputs, activation_function, activation_steepness)=(0, 0, 0.00000000000000000000e+00) (0, 0, 0.00000000000000000000e+00) (0, 0, 0.00000000000000000000e+00) (0, 0, 0.00000000000000000000e+00) (0, 0, 0.00000000000000000000e+00) (0, 0, 0.00000000000000000000e+00) (0, 0, 0.00000000000000000000e+00) (0, 0, 0.00000000000000000000e+00) (0, 0, 0.00000000000000000000e+00) (9, 4, 5.00000000000000000000e-01) (9, 4, 5.00000000000000000000e-01) (9, 4, 5.00000000000000000000e-01) (9, 4, 5.00000000000000000000e-01) (9, 4, 5.00000000000000000000e-01) (9, 4, 5.00000000000000000000e-01) (9, 4, 5.00000000000000000000e-01) (9, 4, 5.00000000000000000000e-01) (9, 4, 5.00000000000000000000e-01) (9, 4, 5.00000000000000000000e-01) (9, 4, 5.00000000000000000000e-01) (9, 4, 5.00000000000000000000e-01) (9, 4, 5.00000000000000000000e-01) (9, 4, 5.00000000000000000000e-01) (9, 4, 5.00000000000000000000e-01) (9, 4, 5.00000000000000000000e-01) (9, 4, 5.00000000000000000000e-01) (9, 4, 5.00000000000000000000e-01) (9, 4, 5.00000000000000000000e-01) (9, 4, 5.00000000000000000000e-01) (9, 4, 5.00000000000000000000e-01) (9, 4, 5.00000000000000000000e-01) (9, 4, 5.00000000000000000000e-01) (0, 0, 0.00000000000000000000e+00) (24, 5, 5.00000000000000000000e-01) (0, 5, 0.00000000000000000000e+00) 
connections (connected_to_neuron, weight)=(0, -1.27995252609252929688e-01) (1, 5.29575198888778686523e-02) (2, -1.00021934509277343750e+02) (3, -4.51225051879882812500e+01) (4, 9.27164673805236816406e-01) (5, 5.90834617614746093750e-01) (6, 9.98064575195312500000e+01) (7, 1.23509681224822998047e+00) (8, -1.83258056640625000000e+00) (0, 1.27286491394042968750e+01) (1, -1.22600975036621093750e+01) (2, 1.88576710224151611328e+00) (3, 2.25855326652526855469e+00) (4, 1.56282806396484375000e+00) (5, -1.91664445400238037109e+00) (6, -7.56821155548095703125e+00) (7, -2.43348197937011718750e+01) (8, -6.34720385074615478516e-01) (0, -5.33532381057739257812e+00) (1, 8.99012947082519531250e+00) (2, 6.46540939807891845703e-01) (3, 9.70463848114013671875e+00) (4, -9.63439762592315673828e-01) (5, 1.38913240432739257812e+01) (6, -6.68544650077819824219e-01) (7, -8.63328456878662109375e+00) (8, 5.88164143264293670654e-02) (0, 1.99078366160392761230e-01) (1, -8.77982940673828125000e+01) (2, -7.77128487825393676758e-02) (3, -1.95832526683807373047e+00) (4, 8.36095869541168212891e-01) (5, -1.91806354522705078125e+01) (6, 6.69372406005859375000e+01) (7, 1.25942863464355468750e+02) (8, 3.21863632202148437500e+01) (0, -1.24000679016113281250e+02) (1, -1.56608037948608398438e+01) (2, 1.82645571231842041016e+00) (3, -1.00980067253112792969e+00) (4, -1.83054387569427490234e+00) (5, 2.66903233528137207031e+00) (6, 1.45055561065673828125e+01) (7, -2.60153007507324218750e+01) (8, 4.54159688949584960938e+00) (0, -8.67786586284637451172e-01) (1, -3.24243158102035522461e-02) (2, -7.70465850830078125000e+00) (3, 2.39316552877426147461e-01) (4, -1.39836883544921875000e+00) (5, 1.23783044517040252686e-01) (6, 7.14783096313476562500e+00) (7, 7.88217401504516601562e+00) (8, -9.37826728820800781250e+00) (0, -5.49654865264892578125e+00) (1, -2.46576976776123046875e+00) (2, -1.65222568511962890625e+01) (3, -1.96522331237792968750e+00) (4, -5.84408164024353027344e-01) (5, -2.18180513381958007812e+00) (6, -3.64494037628173828125e+00) (7, 7.23576068878173828125e+00) (8, 4.87061738967895507812e+00) (0, 8.63935241699218750000e+01) (1, -8.57000127434730529785e-02) (2, 1.55359756946563720703e+00) (3, -4.76140880584716796875e+00) (4, 9.94189548492431640625e+00) (5, 1.50000000000000000000e+03) (6, 1.63901275634765625000e+02) (7, 3.66151762008666992188e+00) (8, 3.25350165367126464844e+00) (0, 1.19954049587249755859e+00) (1, 2.62351870536804199219e-01) (2, -9.31088447570800781250e+00) (3, -2.69129943847656250000e+01) (4, -5.75900220870971679688e+00) (5, 1.31712651252746582031e+00) (6, -5.91111946105957031250e+00) (7, 1.32151997089385986328e+00) (8, 9.31838989257812500000e+00) (0, -1.54000556468963623047e+00) (1, -1.32734060287475585938e-01) (2, -1.50000000000000000000e+03) (3, 3.65558929443359375000e+01) (4, -2.68186509609222412109e-01) (5, 4.52581262588500976562e+00) (6, 9.73220062255859375000e+00) (7, 1.28074922561645507812e+01) (8, -1.00946264266967773438e+01) (0, -2.20603436231613159180e-01) (1, 1.05123415589332580566e-01) (2, 5.43584048748016357422e-01) (3, -4.00898680090904235840e-02) (4, 1.01753354072570800781e+00) (5, -9.92610454559326171875e-02) (6, 6.70383682250976562500e+01) (7, -3.27418441772460937500e+01) (8, -3.21768722534179687500e+01) (0, -8.34327125549316406250e+00) (1, 9.70280170440673828125e+00) (2, -3.53359770774841308594e+00) (3, 6.22187137603759765625e-01) (4, 1.16631841659545898438e+01) (5, 1.46006591796875000000e+03) (6, -3.08287286758422851562e+00) (7, -5.93742704391479492188e+00) (8, 5.31848144531250000000e+00) (0, -1.63806891441345214844e+00) (1, 1.15712524414062500000e+02) (2, -1.13243659973144531250e+02) (3, 6.85688447952270507812e+00) (4, 8.35524499416351318359e-02) (5, -3.00863206386566162109e-01) (6, -7.48216342926025390625e+00) (7, -1.26803833007812500000e+02) (8, -1.21617341041564941406e+00) (0, 3.18549007177352905273e-01) (1, 2.22082662582397460938e+00) (2, 1.30503616333007812500e+01) (3, -1.53876793384552001953e+00) (4, 2.48779582977294921875e+00) (5, -3.80679106712341308594e+00) (6, 6.08125114440917968750e+00) (7, -7.07010173797607421875e+00) (8, 1.35990762710571289062e+00) (0, 4.40814912319183349609e-01) (1, -6.36824178695678710938e+00) (2, -1.34865131378173828125e+01) (3, 6.10668754577636718750e+00) (4, 2.74073076248168945312e+00) (5, 2.48591542243957519531e-01) (6, 3.44731926918029785156e-01) (7, 7.61938762664794921875e+00) (8, 1.81525039672851562500e+00) (0, -4.47782814502716064453e-01) (1, 8.90795326232910156250e+00) (2, -7.51002264022827148438e+00) (3, -5.10781049728393554688e-01) (4, -8.13081920146942138672e-01) (5, 3.77338290214538574219e-01) (6, 4.15968537330627441406e-01) (7, 1.23787631988525390625e+01) (8, 4.32197421789169311523e-01) (0, 1.80381832122802734375e+01) (1, 3.89327228069305419922e-01) (2, 4.12944602966308593750e+00) (3, -3.70237261056900024414e-01) (4, 9.31113338470458984375e+00) (5, 1.50000000000000000000e+03) (6, 4.41984319686889648438e+00) (7, 1.06347494125366210938e+01) (8, 6.42801165580749511719e-01) (0, 2.04270877838134765625e+01) (1, 1.24667060375213623047e+00) (2, 4.97784137725830078125e+00) (3, -1.50596940517425537109e+00) (4, 3.26113653182983398438e+00) (5, 1.50000000000000000000e+03) (6, 1.47740640640258789062e+01) (7, 3.88903403282165527344e+00) (8, 5.31612682342529296875e+00) (0, -1.00106358528137207031e+00) (1, 1.23895776271820068359e+00) (2, -3.25521302223205566406e+00) (3, 2.28600645065307617188e+00) (4, 5.12465596199035644531e-01) (5, 4.54196274280548095703e-01) (6, 8.46882164478302001953e-01) (7, 4.04940605163574218750e+00) (8, -5.47711753845214843750e+00) (0, 1.99103546142578125000e+01) (1, -1.22942650318145751953e+00) (2, -5.24197626113891601562e+00) (3, 4.33244593441486358643e-02) (4, 1.06472301483154296875e+00) (5, -2.11281633377075195312e+00) (6, -4.96023595333099365234e-01) (7, 3.62698125839233398438e+00) (8, 5.54237985610961914062e+00) (0, 4.84712829589843750000e+01) (1, -4.96636182069778442383e-01) (2, 2.30714454650878906250e+01) (3, 2.74485373497009277344e+00) (4, -5.41387224197387695312e+00) (5, -2.41983011364936828613e-01) (6, 4.48459968566894531250e+01) (7, 2.97454619407653808594e+00) (8, 2.40721106529235839844e+00) (0, -5.90199546813964843750e+01) (1, 1.46828851699829101562e+01) (2, 5.36037623882293701172e-01) (3, -1.25626015663146972656e+00) (4, 1.07858979701995849609e+00) (5, -6.20226812362670898438e+00) (6, 1.65283069610595703125e+01) (7, -2.25961704254150390625e+01) (8, 5.63167381286621093750e+00) (0, 1.46072709560394287109e+00) (1, 2.65697550773620605469e+00) (2, -7.04847955703735351562e+00) (3, 1.26874577999114990234e+00) (4, -1.34523689746856689453e-01) (5, 3.92604589462280273438e+00) (6, 8.25272858142852783203e-01) (7, 5.10627794265747070312e+00) (8, -4.98364591598510742188e+00) (9, 2.38277840614318847656e+00) (10, 6.47265148162841796875e+00) (11, -2.10633778572082519531e+00) (12, 4.55202388763427734375e+00) (13, 4.05828380584716796875e+00) (14, 1.08395147323608398438e+01) (15, 2.26515340805053710938e+00) (16, -2.02581256628036499023e-01) (17, -1.09744274616241455078e+00) (18, -1.45342266559600830078e+00) (19, -5.41941356658935546875e+00) (20, -9.27056491374969482422e-01) (21, -1.73920059204101562500e+00) (22, -1.08423340320587158203e+00) (23, 9.72633659839630126953e-01) (24, -4.69052171707153320312e+00) (25, -7.26923525333404541016e-01) (26, -4.12198930978775024414e-01) (27, 1.99800384044647216797e+00) (28, -1.85601663589477539062e+00) (29, -1.25846445560455322266e+00) (30, 2.73455572128295898438e+00) (31, 3.01524829864501953125e+00) (32, 3.46661210060119628906e-02) 
