FANN_FLO_2.1
num_layers=3
learning_rate=0.700000
connection_rate=1.000000
network_type=0
learning_momentum=0.000000
training_algorithm=2
train_error_function=1
train_stop_function=0
cascade_output_change_fraction=0.010000
quickprop_decay=-0.000100
quickprop_mu=1.750000
rprop_increase_factor=1.200000
rprop_decrease_factor=0.500000
rprop_delta_min=0.000000
rprop_delta_max=50.000000
rprop_delta_zero=0.100000
cascade_output_stagnation_epochs=12
cascade_candidate_change_fraction=0.010000
cascade_candidate_stagnation_epochs=12
cascade_max_out_epochs=150
cascade_min_out_epochs=50
cascade_max_cand_epochs=150
cascade_min_cand_epochs=50
cascade_num_candidate_groups=2
bit_fail_limit=3.49999994039535522461e-01
cascade_candidate_limit=1.00000000000000000000e+03
cascade_weight_multiplier=4.00000005960464477539e-01
cascade_activation_functions_count=10
cascade_activation_functions=3 5 7 8 10 11 14 15 16 17 
cascade_activation_steepnesses_count=4
cascade_activation_steepnesses=2.50000000000000000000e-01 5.00000000000000000000e-01 7.50000000000000000000e-01 1.00000000000000000000e+00 
layer_sizes=9 6 2 
scale_included=0
neurons (num_inputs, activation_function, activation_steepness)=(0, 0, 0.00000000000000000000e+00) (0, 0, 0.00000000000000000000e+00) (0, 0, 0.00000000000000000000e+00) (0, 0, 0.00000000000000000000e+00) (0, 0, 0.00000000000000000000e+00) (0, 0, 0.00000000000000000000e+00) (0, 0, 0.00000000000000000000e+00) (0, 0, 0.00000000000000000000e+00) (0, 0, 0.00000000000000000000e+00) (9, 4, 5.00000000000000000000e-01) (9, 4, 5.00000000000000000000e-01) (9, 4, 5.00000000000000000000e-01) (9, 4, 5.00000000000000000000e-01) (9, 4, 5.00000000000000000000e-01) (0, 0, 0.00000000000000000000e+00) (6, 4, 5.00000000000000000000e-01) (0, 0, 0.00000000000000000000e+00) 
connections (connected_to_neuron, weight)=(0, 6.74469947814941406250e-01) (1, -2.04500427246093750000e+01) (2, 6.49369478225708007812e-01) (3, -1.88516974449157714844e+00) (4, -5.58389091491699218750e+01) (5, 1.19577300548553466797e+00) (6, 2.97511219978332519531e-01) (7, -2.56500968933105468750e+01) (8, 2.43217544555664062500e+01) (0, 1.93105125427246093750e+00) (1, -1.46340002441406250000e+03) (2, -1.24198083496093750000e+03) (3, -1.49705102539062500000e+03) (4, 1.49748449707031250000e+03) (5, 1.49914953613281250000e+03) (6, 1.38639297485351562500e+01) (7, -1.50000000000000000000e+03) (8, 1.24504650878906250000e+03) (0, 4.95921478271484375000e+02) (1, -1.17723255157470703125e+01) (2, 8.52131936699151992798e-03) (3, 2.71638885498046875000e+02) (4, -4.96623199462890625000e+02) (5, 4.91475860595703125000e+02) (6, 2.98341441154479980469e+00) (7, 4.90955902099609375000e+02) (8, 4.95795562744140625000e+02) (0, -6.97038879394531250000e+02) (1, 1.50000000000000000000e+03) (2, 1.50000000000000000000e+03) (3, -1.50000000000000000000e+03) (4, 6.95415283203125000000e+02) (5, -1.50000000000000000000e+03) (6, 1.50000000000000000000e+03) (7, 1.49552478027343750000e+03) (8, 1.50000000000000000000e+03) (0, 6.39994926452636718750e+01) (1, -6.88995727539062500000e+02) (2, -7.71216659545898437500e+01) (3, 8.32229858398437500000e+02) (4, 4.46558319091796875000e+02) (5, 2.16434574127197265625e+00) (6, -4.27830362319946289062e+00) (7, 7.24100463867187500000e+02) (8, 2.73296112060546875000e+02) (9, 6.04460668563842773438e+00) (10, 4.80571508407592773438e+00) (11, -7.76927995681762695312e+00) (12, -2.35081481933593750000e+00) (13, 8.98773384094238281250e+00) (14, -5.45811271667480468750e+00) 
