FANN_FLO_2.1
num_layers=3
learning_rate=0.700000
connection_rate=1.000000
network_type=0
learning_momentum=0.000000
training_algorithm=2
train_error_function=1
train_stop_function=0
cascade_output_change_fraction=0.010000
quickprop_decay=-0.000100
quickprop_mu=1.750000
rprop_increase_factor=1.200000
rprop_decrease_factor=0.500000
rprop_delta_min=0.000000
rprop_delta_max=50.000000
rprop_delta_zero=0.100000
cascade_output_stagnation_epochs=12
cascade_candidate_change_fraction=0.010000
cascade_candidate_stagnation_epochs=12
cascade_max_out_epochs=150
cascade_min_out_epochs=50
cascade_max_cand_epochs=150
cascade_min_cand_epochs=50
cascade_num_candidate_groups=2
bit_fail_limit=3.49999994039535522461e-01
cascade_candidate_limit=1.00000000000000000000e+03
cascade_weight_multiplier=4.00000005960464477539e-01
cascade_activation_functions_count=10
cascade_activation_functions=3 5 7 8 10 11 14 15 16 17 
cascade_activation_steepnesses_count=4
cascade_activation_steepnesses=2.50000000000000000000e-01 5.00000000000000000000e-01 7.50000000000000000000e-01 1.00000000000000000000e+00 
layer_sizes=9 26 2 
scale_included=0
neurons (num_inputs, activation_function, activation_steepness)=(0, 0, 0.00000000000000000000e+00) (0, 0, 0.00000000000000000000e+00) (0, 0, 0.00000000000000000000e+00) (0, 0, 0.00000000000000000000e+00) (0, 0, 0.00000000000000000000e+00) (0, 0, 0.00000000000000000000e+00) (0, 0, 0.00000000000000000000e+00) (0, 0, 0.00000000000000000000e+00) (0, 0, 0.00000000000000000000e+00) (9, 4, 5.00000000000000000000e-01) (9, 4, 5.00000000000000000000e-01) (9, 4, 5.00000000000000000000e-01) (9, 4, 5.00000000000000000000e-01) (9, 4, 5.00000000000000000000e-01) (9, 4, 5.00000000000000000000e-01) (9, 4, 5.00000000000000000000e-01) (9, 4, 5.00000000000000000000e-01) (9, 4, 5.00000000000000000000e-01) (9, 4, 5.00000000000000000000e-01) (9, 4, 5.00000000000000000000e-01) (9, 4, 5.00000000000000000000e-01) (9, 4, 5.00000000000000000000e-01) (9, 4, 5.00000000000000000000e-01) (9, 4, 5.00000000000000000000e-01) (9, 4, 5.00000000000000000000e-01) (9, 4, 5.00000000000000000000e-01) (9, 4, 5.00000000000000000000e-01) (9, 4, 5.00000000000000000000e-01) (9, 4, 5.00000000000000000000e-01) (9, 4, 5.00000000000000000000e-01) (9, 4, 5.00000000000000000000e-01) (9, 4, 5.00000000000000000000e-01) (9, 4, 5.00000000000000000000e-01) (9, 4, 5.00000000000000000000e-01) (0, 0, 0.00000000000000000000e+00) (26, 4, 5.00000000000000000000e-01) (0, 0, 0.00000000000000000000e+00) 
connections (connected_to_neuron, weight)=(0, -3.38853836059570312500e-01) (1, 2.25986518859863281250e+01) (2, 1.44483482837677001953e+00) (3, 2.39706301689147949219e+00) (4, -9.22005295753479003906e-01) (5, -1.64948165416717529297e+00) (6, 9.57077965140342712402e-02) (7, 1.29810724258422851562e+01) (8, -5.06314277648925781250e+00) (0, 2.73603171110153198242e-01) (1, 8.74130981445312500000e+02) (2, 1.43449068069458007812e+00) (3, 6.62858337402343750000e+02) (4, -6.43337280273437500000e+02) (5, 1.50000000000000000000e+03) (6, 2.29908794164657592773e-01) (7, 1.50000000000000000000e+03) (8, -2.00755119323730468750e+01) (0, 2.48865321278572082520e-01) (1, 1.39612707519531250000e+03) (2, 4.29483642578125000000e+01) (3, -2.83406276702880859375e+01) (4, -2.42582778930664062500e+01) (5, -9.90200996398925781250e+00) (6, 1.40900090336799621582e-01) (7, 1.28209381103515625000e+01) (8, 1.16418066024780273438e+01) (0, 1.50000000000000000000e+03) (1, 1.41151171875000000000e+03) (2, 7.15712881088256835938e+00) (3, -1.38066577148437500000e+03) (4, 1.38073620605468750000e+03) (5, -1.38071813964843750000e+03) (6, 1.34639695286750793457e-01) (7, 7.85655546188354492188e+00) (8, 2.84614753723144531250e+00) (0, -5.24273097515106201172e-01) (1, 9.35293457031250000000e+02) (2, 6.00567519664764404297e-01) (3, -9.43046142578125000000e+02) (4, 9.48430175781250000000e+02) (5, 1.26727190017700195312e+01) (6, -8.67717713117599487305e-02) (7, -2.11765527725219726562e+00) (8, -5.67562913894653320312e+00) (0, 7.87594238281250000000e+02) (1, 1.39612707519531250000e+03) (2, -8.25478744506835937500e+00) (3, 4.94544006347656250000e+02) (4, 1.49997705078125000000e+03) (5, -1.49403234863281250000e+03) (6, 1.10701913833618164062e+01) (7, -1.49981140136718750000e+03) (8, 5.46430063247680664062e+00) (0, -5.04839606583118438721e-02) (1, 1.39612707519531250000e+03) (2, 1.55172691345214843750e+01) (3, -2.84435319900512695312e+00) (4, 1.35333585739135742188e+00) (5, -2.53392171859741210938e+00) (6, 8.45007225871086120605e-02) (7, 2.42302474975585937500e+01) (8, 6.57431507110595703125e+00) (0, -1.18292939662933349609e+00) (1, 1.49816894531250000000e+03) (2, -7.54424057006835937500e+01) (3, -4.32008056640625000000e+01) (4, -5.78059291839599609375e+00) (5, 3.77380847930908203125e+00) (6, 4.24734532833099365234e-01) (7, 8.65361869335174560547e-01) (8, 2.82234764099121093750e+00) (0, -7.77681398391723632812e+00) (1, 1.49816894531250000000e+03) (2, 6.15511357784271240234e-01) (3, 1.50000000000000000000e+03) (4, 7.99574041366577148438e+00) (5, -3.58958935737609863281e+00) (6, 1.57599732279777526855e-01) (7, -7.63217544555664062500e+00) (8, -1.26489572525024414062e+01) (0, 3.30466003417968750000e+01) (1, 1.49816894531250000000e+03) (2, 3.84110984802246093750e+01) (3, -5.05341453552246093750e+01) (4, 8.60582809448242187500e+01) (5, -1.02910133361816406250e+02) (6, 4.67449426651000976562e-01) (7, 1.01250505447387695312e+01) (8, 1.24117145538330078125e+01) (0, -1.52660255432128906250e+01) (1, 1.39612707519531250000e+03) (2, -5.92544376850128173828e-01) (3, -1.18756113052368164062e+01) (4, 9.23583602905273437500e+00) (5, 1.67895908355712890625e+01) (6, -2.76310145854949951172e-01) (7, 7.08278512954711914062e+00) (8, 6.07571077346801757812e+00) (0, 9.23054069280624389648e-02) (1, 1.39612707519531250000e+03) (2, -3.02649760246276855469e+00) (3, 2.52376689910888671875e+01) (4, -4.21088981628417968750e+00) (5, -4.39106369018554687500e+00) (6, -1.45571589469909667969e-01) (7, 1.25702934265136718750e+01) (8, 1.34165372848510742188e+01) (0, -1.72299671173095703125e+00) (1, 1.39612707519531250000e+03) (2, 1.78066879510879516602e-01) (3, -1.78703892230987548828e+00) (4, -6.84352874755859375000e-01) (5, 5.36681354045867919922e-01) (6, 1.99718043208122253418e-01) (7, 6.13866853713989257812e+00) (8, 5.05498743057250976562e+00) (0, 1.22312498092651367188e+01) (1, 1.49816894531250000000e+03) (2, 1.50000000000000000000e+03) (3, -1.47652673339843750000e+03) (4, -2.58359260559082031250e+01) (5, 1.10978298187255859375e+01) (6, 3.28521020710468292236e-02) (7, -7.19469785690307617188e+00) (8, -2.96711707115173339844e+00) (0, 5.00239253044128417969e-01) (1, 1.39612707519531250000e+03) (2, -7.79668450355529785156e-01) (3, 1.06135072708129882812e+01) (4, -2.60533046722412109375e+01) (5, 2.67032680511474609375e+01) (6, -3.98422360420227050781e-01) (7, -5.21888136863708496094e-01) (8, -2.55184245109558105469e+00) (0, 1.88864059448242187500e+02) (1, 1.49816894531250000000e+03) (2, -6.50712203979492187500e+00) (3, 1.76677749633789062500e+02) (4, 2.58142876625061035156e+00) (5, -3.88429046630859375000e+02) (6, -3.06460801512002944946e-02) (7, 1.90449142456054687500e+02) (8, 6.29505968093872070312e+00) (0, -1.50000000000000000000e+03) (1, 1.49816894531250000000e+03) (2, 1.50000000000000000000e+03) (3, 1.50000000000000000000e+03) (4, 1.50000000000000000000e+03) (5, 1.50000000000000000000e+03) (6, 1.49868395996093750000e+03) (7, 2.50009872436523437500e+02) (8, 2.53096801757812500000e+02) (0, -9.06746006011962890625e+00) (1, 1.49816894531250000000e+03) (2, 1.96656646728515625000e+01) (3, 1.53108779907226562500e+02) (4, 2.20061759948730468750e+01) (5, -3.11952552795410156250e+01) (6, -1.77744662761688232422e+00) (7, 5.28933000564575195312e+00) (8, 7.76720094680786132812e+00) (0, 3.45647573471069335938e-01) (1, 1.39612707519531250000e+03) (2, -4.36900943517684936523e-01) (3, -2.58139538764953613281e+00) (4, -5.90908861160278320312e+00) (5, -3.71418190002441406250e+01) (6, 1.43301710486412048340e-01) (7, 4.12066764831542968750e+01) (8, 1.14220237731933593750e+01) (0, -6.69184476137161254883e-02) (1, 1.39612707519531250000e+03) (2, -2.41883754730224609375e+00) (3, -1.97814500331878662109e+00) (4, 3.06830406188964843750e+00) (5, -6.66751766204833984375e+00) (6, -7.48802348971366882324e-02) (7, 9.09922790527343750000e+00) (8, 6.49237155914306640625e+00) (0, 1.50000000000000000000e+03) (1, 1.39612707519531250000e+03) (2, 1.17212209701538085938e+01) (3, -1.17357897758483886719e+00) (4, 1.98691139221191406250e+01) (5, -9.88725960254669189453e-01) (6, 1.07853579521179199219e+00) (7, 9.51908588409423828125e+00) (8, -1.45678548812866210938e+01) (0, -8.50433731079101562500e+00) (1, 1.22591400146484375000e+02) (2, -8.73656005859375000000e+01) (3, 9.53693771362304687500e+01) (4, 1.20917686462402343750e+02) (5, -1.13312164306640625000e+02) (6, 1.40176951885223388672e+00) (7, -4.03781700134277343750e+00) (8, -6.46914482116699218750e+00) (0, -2.71660590171813964844e+00) (1, 1.49816894531250000000e+03) (2, 9.64022731781005859375e+00) (3, -1.12672790527343750000e+02) (4, 3.23573678731918334961e-01) (5, 8.88452987670898437500e+01) (6, -1.09545695781707763672e+00) (7, 2.06075382232666015625e+00) (8, 4.58846139907836914062e+00) (0, -4.07121372222900390625e+00) (1, 1.49816894531250000000e+03) (2, 1.50000000000000000000e+03) (3, 1.50000000000000000000e+03) (4, 1.50000000000000000000e+03) (5, 9.93039608001708984375e-01) (6, -1.87206431291997432709e-03) (7, -4.63363075256347656250e+00) (8, 4.83087921142578125000e+00) (0, -2.48912358283996582031e+00) (1, 1.49816894531250000000e+03) (2, 1.50000000000000000000e+03) (3, 1.50000000000000000000e+03) (4, -6.44151830673217773438e+00) (5, -2.22983002662658691406e+00) (6, -1.03145660832524299622e-02) (7, -4.45954799652099609375e+00) (8, 5.88529634475708007812e+00) (9, -7.11014366149902343750e+00) (10, -6.07003736495971679688e+00) (11, 2.79437732696533203125e+00) (12, 1.52254319190979003906e+00) (13, -4.84087705612182617188e+00) (14, 1.24134361743927001953e+00) (15, 2.91806960105895996094e+00) (16, -1.23791527748107910156e+00) (17, -1.24348652362823486328e+00) (18, -1.03756916522979736328e+00) (19, 7.36306250095367431641e-01) (20, 5.12572574615478515625e+00) (21, 1.81225430965423583984e+00) (22, -2.48851418495178222656e+00) (23, 2.82664370536804199219e+00) (24, -7.84323120117187500000e+00) (25, -3.53052675724029541016e-01) (26, -1.69544231891632080078e+00) (27, 4.24209547042846679688e+00) (28, 4.82375001907348632812e+00) (29, 6.19619607925415039062e-01) (30, 2.25237441062927246094e+00) (31, -1.23619198799133300781e+00) (32, -2.83934760093688964844e+00) (33, -2.21186232566833496094e+00) (34, 7.76976764202117919922e-01) 
