FANN_FLO_2.1
num_layers=3
learning_rate=0.700000
connection_rate=1.000000
network_type=0
learning_momentum=0.000000
training_algorithm=2
train_error_function=1
train_stop_function=0
cascade_output_change_fraction=0.010000
quickprop_decay=-0.000100
quickprop_mu=1.750000
rprop_increase_factor=1.200000
rprop_decrease_factor=0.500000
rprop_delta_min=0.000000
rprop_delta_max=50.000000
rprop_delta_zero=0.100000
cascade_output_stagnation_epochs=12
cascade_candidate_change_fraction=0.010000
cascade_candidate_stagnation_epochs=12
cascade_max_out_epochs=150
cascade_min_out_epochs=50
cascade_max_cand_epochs=150
cascade_min_cand_epochs=50
cascade_num_candidate_groups=2
bit_fail_limit=3.49999994039535522461e-01
cascade_candidate_limit=1.00000000000000000000e+03
cascade_weight_multiplier=4.00000005960464477539e-01
cascade_activation_functions_count=10
cascade_activation_functions=3 5 7 8 10 11 14 15 16 17 
cascade_activation_steepnesses_count=4
cascade_activation_steepnesses=2.50000000000000000000e-01 5.00000000000000000000e-01 7.50000000000000000000e-01 1.00000000000000000000e+00 
layer_sizes=9 26 2 
scale_included=0
neurons (num_inputs, activation_function, activation_steepness)=(0, 0, 0.00000000000000000000e+00) (0, 0, 0.00000000000000000000e+00) (0, 0, 0.00000000000000000000e+00) (0, 0, 0.00000000000000000000e+00) (0, 0, 0.00000000000000000000e+00) (0, 0, 0.00000000000000000000e+00) (0, 0, 0.00000000000000000000e+00) (0, 0, 0.00000000000000000000e+00) (0, 0, 0.00000000000000000000e+00) (9, 4, 5.00000000000000000000e-01) (9, 4, 5.00000000000000000000e-01) (9, 4, 5.00000000000000000000e-01) (9, 4, 5.00000000000000000000e-01) (9, 4, 5.00000000000000000000e-01) (9, 4, 5.00000000000000000000e-01) (9, 4, 5.00000000000000000000e-01) (9, 4, 5.00000000000000000000e-01) (9, 4, 5.00000000000000000000e-01) (9, 4, 5.00000000000000000000e-01) (9, 4, 5.00000000000000000000e-01) (9, 4, 5.00000000000000000000e-01) (9, 4, 5.00000000000000000000e-01) (9, 4, 5.00000000000000000000e-01) (9, 4, 5.00000000000000000000e-01) (9, 4, 5.00000000000000000000e-01) (9, 4, 5.00000000000000000000e-01) (9, 4, 5.00000000000000000000e-01) (9, 4, 5.00000000000000000000e-01) (9, 4, 5.00000000000000000000e-01) (9, 4, 5.00000000000000000000e-01) (9, 4, 5.00000000000000000000e-01) (9, 4, 5.00000000000000000000e-01) (9, 4, 5.00000000000000000000e-01) (9, 4, 5.00000000000000000000e-01) (0, 0, 0.00000000000000000000e+00) (26, 4, 5.00000000000000000000e-01) (0, 0, 0.00000000000000000000e+00) 
connections (connected_to_neuron, weight)=(0, -4.80447076261043548584e-02) (1, 7.69501924514770507812e-03) (2, -2.05843746662139892578e-02) (3, -9.26114469766616821289e-02) (4, -5.50601743161678314209e-02) (5, 3.86831089854240417480e-02) (6, 5.66403642296791076660e-02) (7, -8.27468186616897583008e-03) (8, 2.42756977677345275879e-02) (0, 5.80092743039131164551e-02) (1, 7.87803605198860168457e-02) (2, 6.45497366786003112793e-02) (3, -8.24065506458282470703e-03) (4, -7.98359140753746032715e-02) (5, 1.63014978170394897461e-03) (6, -9.87420380115509033203e-02) (7, -8.51865336298942565918e-02) (8, -6.04682527482509613037e-02) (0, -6.61291927099227905273e-02) (1, 3.58894392848014831543e-02) (2, -8.46273377537727355957e-02) (3, 5.35070970654487609863e-02) (4, 3.27037349343299865723e-02) (5, -1.21209621429443359375e-02) (6, 3.90795692801475524902e-02) (7, 1.09236463904380798340e-02) (8, 1.72626152634620666504e-02) (0, 2.15293541550636291504e-02) (1, 5.51396384835243225098e-02) (2, -4.31688986718654632568e-02) (3, 2.55902111530303955078e-03) (4, -9.29050743579864501953e-02) (5, 6.45261332392692565918e-02) (6, 8.19746330380439758301e-02) (7, -8.55165198445320129395e-02) (8, -9.05340462923049926758e-02) (0, 2.06577405333518981934e-02) (1, 7.11238458752632141113e-02) (2, 1.19127333164215087891e-03) (3, -5.50665557384490966797e-02) (4, 2.91331335902214050293e-02) (5, -2.00283601880073547363e-02) (6, -9.05168280005455017090e-02) (7, -7.91075229644775390625e-02) (8, 1.35734677314758300781e-04) (0, 1.11133232712745666504e-02) (1, -7.78495669364929199219e-02) (2, 1.49491876363754272461e-02) (3, 5.06450757384300231934e-02) (4, -4.39787581562995910645e-02) (5, -4.91613745689392089844e-02) (6, 6.60177394747734069824e-02) (7, -9.04716551303863525391e-02) (8, 8.35423544049263000488e-02) (0, -4.61032204329967498779e-02) (1, 4.86079230904579162598e-02) (2, -5.53399324417114257812e-03) (3, 7.11594000458717346191e-02) (4, -2.98627316951751708984e-02) (5, -5.03943525254726409912e-02) (6, -7.20095038414001464844e-02) (7, 7.26962760090827941895e-02) (8, -4.32994253933429718018e-02) (0, 9.25166234374046325684e-02) (1, 5.46709224581718444824e-02) (2, -2.88159400224685668945e-02) (3, -9.80174243450164794922e-02) (4, -2.46713310480117797852e-02) (5, -5.76920956373214721680e-02) (6, 3.17385047674179077148e-03) (7, 2.02621072530746459961e-02) (8, 7.14410319924354553223e-02) (0, 8.31455066800117492676e-02) (1, 2.97452881932258605957e-02) (2, 9.23335030674934387207e-02) (3, -1.67187750339508056641e-02) (4, -5.91413900256156921387e-02) (5, -8.55160653591156005859e-02) (6, 9.82304289937019348145e-02) (7, 9.15036872029304504395e-02) (8, -2.94948220252990722656e-02) (0, -5.09309582412242889404e-02) (1, 5.75214251875877380371e-02) (2, -1.99664682149887084961e-02) (3, -6.73886016011238098145e-02) (4, -8.85818004608154296875e-02) (5, -7.13585540652275085449e-02) (6, 2.70774140954017639160e-02) (7, 8.25775936245918273926e-02) (8, -1.22128427028656005859e-03) (0, 7.66830518841743469238e-02) (1, -8.94319117069244384766e-02) (2, -2.85250097513198852539e-02) (3, -6.66163712739944458008e-02) (4, -9.69152897596359252930e-02) (5, -7.38540813326835632324e-02) (6, 4.56769764423370361328e-03) (7, -9.49327051639556884766e-02) (8, 1.47458165884017944336e-03) (0, 4.68756034970283508301e-02) (1, 8.24115425348281860352e-03) (2, -7.82633051276206970215e-02) (3, 1.83166265487670898438e-02) (4, -8.61335545778274536133e-03) (5, 5.14819696545600891113e-02) (6, 1.06501355767250061035e-02) (7, 7.46678784489631652832e-02) (8, 9.23405960202217102051e-02) (0, 2.51340791583061218262e-02) (1, 7.28982910513877868652e-02) (2, 8.38442668318748474121e-02) (3, 9.56392511725425720215e-02) (4, -7.80326724052429199219e-02) (5, 4.13656905293464660645e-02) (6, -2.43272110819816589355e-02) (7, -4.54212687909603118896e-02) (8, 5.27838990092277526855e-02) (0, 4.31422889232635498047e-03) (1, 8.16561505198478698730e-02) (2, 3.53614911437034606934e-02) (3, -9.69070568680763244629e-02) (4, 5.83392009139060974121e-02) (5, 4.59295734763145446777e-02) (6, -2.54320651292800903320e-02) (7, 9.17228385806083679199e-02) (8, 4.90142926573753356934e-02) (0, 7.13862478733062744141e-04) (1, -3.70947271585464477539e-03) (2, 5.40815964341163635254e-02) (3, -9.78115648031234741211e-02) (4, -5.68338707089424133301e-02) (5, -3.76772582530975341797e-02) (6, -7.60748684406280517578e-02) (7, 6.14827647805213928223e-02) (8, 5.37093952298164367676e-02) (0, 7.54071101546287536621e-02) (1, -2.78671011328697204590e-02) (2, 2.83772572875022888184e-02) (3, 6.77477046847343444824e-02) (4, 9.72669795155525207520e-02) (5, 1.27553939819335937500e-03) (6, 5.15919849276542663574e-02) (7, 9.29062440991401672363e-02) (8, 2.32428759336471557617e-02) (0, -7.04232603311538696289e-03) (1, -3.14209833741188049316e-02) (2, 7.78216049075126647949e-02) (3, -5.42584322392940521240e-02) (4, 7.28932544589042663574e-02) (5, 5.94777539372444152832e-02) (6, 8.11030641198158264160e-02) (7, 7.59861990809440612793e-02) (8, 1.78169384598731994629e-02) (0, 2.70326361060142517090e-02) (1, -4.94458675384521484375e-02) (2, 9.53976809978485107422e-03) (3, -2.39530652761459350586e-02) (4, 5.12679889798164367676e-02) (5, -9.41696986556053161621e-02) (6, -6.98714777827262878418e-02) (7, 5.34564331173896789551e-02) (8, -5.10035715997219085693e-02) (0, -7.54873454570770263672e-03) (1, 7.73815587162971496582e-02) (2, -8.95208120346069335938e-02) (3, -5.38393519818782806396e-02) (4, 5.27886822819709777832e-02) (5, -1.73879116773605346680e-02) (6, 7.45379105210304260254e-02) (7, 2.05363780260086059570e-02) (8, -2.01209336519241333008e-02) (0, -2.41865515708923339844e-02) (1, -2.78716534376144409180e-02) (2, -2.72146984934806823730e-02) (3, 9.90563109517097473145e-02) (4, 6.50860145688056945801e-02) (5, 4.13643196225166320801e-02) (6, 7.68779292702674865723e-02) (7, -8.91724079847335815430e-02) (8, 1.42575651407241821289e-02) (0, 3.63556817173957824707e-02) (1, 9.19306501746177673340e-02) (2, -9.75625216960906982422e-03) (3, -4.58273887634277343750e-02) (4, 1.89632922410964965820e-02) (5, 4.07978817820549011230e-02) (6, 6.37123808264732360840e-02) (7, 9.50102284550666809082e-02) (8, -7.93413072824478149414e-03) (0, 6.95426836609840393066e-02) (1, -7.48612582683563232422e-02) (2, -5.44777028262615203857e-02) (3, -8.14608782529830932617e-02) (4, 1.75900086760520935059e-02) (5, -7.70961418747901916504e-02) (6, -7.09816887974739074707e-02) (7, 6.37506470084190368652e-02) (8, 7.56925418972969055176e-02) (0, 1.16304010152816772461e-02) (1, 3.82885560393333435059e-02) (2, -3.77108901739120483398e-03) (3, 9.15094688534736633301e-02) (4, -8.58979970216751098633e-02) (5, 6.83572664856910705566e-02) (6, -3.57052311301231384277e-02) (7, -8.68416726589202880859e-02) (8, 3.34432795643806457520e-02) (0, -9.43409204483032226562e-02) (1, 9.00362506508827209473e-02) (2, 4.42708805203437805176e-02) (3, 1.99166387319564819336e-02) (4, 2.63919308781623840332e-02) (5, 3.62015292048454284668e-02) (6, -8.98396074771881103516e-02) (7, 8.05645361542701721191e-02) (8, -4.48351800441741943359e-02) (0, 5.09582832455635070801e-02) (1, 4.42769154906272888184e-02) (2, -4.98249605298042297363e-02) (3, -5.69758601486682891846e-02) (4, 1.38196125626564025879e-02) (5, -2.46862173080444335938e-02) (6, -1.14535614848136901855e-02) (7, 3.23587134480476379395e-02) (8, 9.29038003087043762207e-02) (9, 1.14503055810928344727e-02) (10, 6.13770410418510437012e-02) (11, 5.66544458270072937012e-02) (12, -1.28571614623069763184e-02) (13, -2.69925594329833984375e-02) (14, -5.05699962377548217773e-03) (15, 8.33717510104179382324e-02) (16, -3.54830920696258544922e-02) (17, 9.04500484466552734375e-03) (18, 5.17290160059928894043e-02) (19, 2.88116708397865295410e-02) (20, 2.22033411264419555664e-02) (21, -1.48277059197425842285e-02) (22, 3.44707444310188293457e-02) (23, 1.22395902872085571289e-02) (24, -7.05568268895149230957e-02) (25, -4.56126108765602111816e-02) (26, -6.13684915006160736084e-02) (27, 6.56447038054466247559e-02) (28, -3.54522168636322021484e-02) (29, -8.08039605617523193359e-02) (30, -7.91904777288436889648e-02) (31, -8.44939500093460083008e-02) (32, 6.34729638695716857910e-02) (33, -2.90154367685317993164e-02) (34, -4.14698086678981781006e-02) 
