FANN_FLO_2.1
num_layers=3
learning_rate=0.700000
connection_rate=1.000000
network_type=0
learning_momentum=0.000000
training_algorithm=2
train_error_function=1
train_stop_function=0
cascade_output_change_fraction=0.010000
quickprop_decay=-0.000100
quickprop_mu=1.750000
rprop_increase_factor=1.200000
rprop_decrease_factor=0.500000
rprop_delta_min=0.000000
rprop_delta_max=50.000000
rprop_delta_zero=0.100000
cascade_output_stagnation_epochs=12
cascade_candidate_change_fraction=0.010000
cascade_candidate_stagnation_epochs=12
cascade_max_out_epochs=150
cascade_min_out_epochs=50
cascade_max_cand_epochs=150
cascade_min_cand_epochs=50
cascade_num_candidate_groups=2
bit_fail_limit=3.49999994039535522461e-01
cascade_candidate_limit=1.00000000000000000000e+03
cascade_weight_multiplier=4.00000005960464477539e-01
cascade_activation_functions_count=10
cascade_activation_functions=3 5 7 8 10 11 14 15 16 17 
cascade_activation_steepnesses_count=4
cascade_activation_steepnesses=2.50000000000000000000e-01 5.00000000000000000000e-01 7.50000000000000000000e-01 1.00000000000000000000e+00 
layer_sizes=7 7 4 
scale_included=0
neurons (num_inputs, activation_function, activation_steepness)=(0, 0, 0.00000000000000000000e+00) (0, 0, 0.00000000000000000000e+00) (0, 0, 0.00000000000000000000e+00) (0, 0, 0.00000000000000000000e+00) (0, 0, 0.00000000000000000000e+00) (0, 0, 0.00000000000000000000e+00) (0, 0, 0.00000000000000000000e+00) (7, 3, 5.00000000000000000000e-01) (7, 3, 5.00000000000000000000e-01) (7, 3, 5.00000000000000000000e-01) (7, 3, 5.00000000000000000000e-01) (7, 3, 5.00000000000000000000e-01) (7, 3, 5.00000000000000000000e-01) (0, 3, 0.00000000000000000000e+00) (7, 3, 5.00000000000000000000e-01) (7, 3, 5.00000000000000000000e-01) (7, 3, 5.00000000000000000000e-01) (0, 3, 0.00000000000000000000e+00) 
connections (connected_to_neuron, weight)=(0, 3.64713430404663085938e+00) (1, -1.56182515621185302734e+00) (2, -1.50000000000000000000e+03) (3, -1.21613204479217529297e+00) (4, -1.08526897430419921875e+00) (5, 1.24097894877195358276e-02) (6, -1.23987352848052978516e+00) (0, -1.50000000000000000000e+03) (1, -1.57659959793090820312e+00) (2, 2.18693115234375000000e+02) (3, -9.64154005050659179688e-01) (4, -1.50000000000000000000e+03) (5, 1.10198187828063964844e+00) (6, -1.33511590957641601562e+00) (0, 1.50000000000000000000e+03) (1, 1.50000000000000000000e+03) (2, -4.07629821777343750000e+02) (3, 1.50000000000000000000e+03) (4, 1.50000000000000000000e+03) (5, 1.50000000000000000000e+03) (6, 5.85441303253173828125e+00) (0, 1.50000000000000000000e+03) (1, 1.50000000000000000000e+03) (2, -1.84116073608398437500e+02) (3, 1.50000000000000000000e+03) (4, 9.52199280261993408203e-01) (5, -3.97833037376403808594e+00) (6, 2.13668584823608398438e+00) (0, -1.50000000000000000000e+03) (1, -1.06425046920776367188e+00) (2, 2.18725830078125000000e+02) (3, -1.14506161212921142578e+00) (4, -6.17646157741546630859e-01) (5, -1.50000000000000000000e+03) (6, -1.21287763118743896484e+00) (0, -3.78050422668457031250e+00) (1, 1.50000000000000000000e+03) (2, 1.50000000000000000000e+03) (3, 3.54359602928161621094e+00) (4, 1.50000000000000000000e+03) (5, -1.29228162765502929688e+00) (6, 2.69956707954406738281e+00) (7, -6.01513481140136718750e+00) (8, 2.23517751693725585938e+00) (9, -6.89918160438537597656e-01) (10, -7.81623125076293945312e-01) (11, 3.83736968040466308594e+00) (12, 1.43029963970184326172e+00) (13, 3.65848690271377563477e-02) (7, 6.21941528320312500000e+01) (8, 8.00191955566406250000e+01) (9, -1.99155273437500000000e+01) (10, -2.00256805419921875000e+01) (11, 8.00642700195312500000e+01) (12, -2.00130004882812500000e+01) (13, -2.00242919921875000000e+01) (7, 5.90546035766601562500e+00) (8, -2.33116078376770019531e+00) (9, 9.14201319217681884766e-01) (10, 8.08468163013458251953e-01) (11, -3.79198861122131347656e+00) (12, -1.85123670101165771484e+00) (13, 1.44103795289993286133e-01) 
