FANN_FLO_2.1
num_layers=3
learning_rate=0.700000
connection_rate=1.000000
network_type=0
learning_momentum=0.000000
training_algorithm=2
train_error_function=1
train_stop_function=0
cascade_output_change_fraction=0.010000
quickprop_decay=-0.000100
quickprop_mu=1.750000
rprop_increase_factor=1.200000
rprop_decrease_factor=0.500000
rprop_delta_min=0.000000
rprop_delta_max=50.000000
rprop_delta_zero=0.100000
cascade_output_stagnation_epochs=12
cascade_candidate_change_fraction=0.010000
cascade_candidate_stagnation_epochs=12
cascade_max_out_epochs=150
cascade_min_out_epochs=50
cascade_max_cand_epochs=150
cascade_min_cand_epochs=50
cascade_num_candidate_groups=2
bit_fail_limit=3.49999994039535522461e-01
cascade_candidate_limit=1.00000000000000000000e+03
cascade_weight_multiplier=4.00000005960464477539e-01
cascade_activation_functions_count=10
cascade_activation_functions=3 5 7 8 10 11 14 15 16 17 
cascade_activation_steepnesses_count=4
cascade_activation_steepnesses=2.50000000000000000000e-01 5.00000000000000000000e-01 7.50000000000000000000e-01 1.00000000000000000000e+00 
layer_sizes=9 6 2 
scale_included=0
neurons (num_inputs, activation_function, activation_steepness)=(0, 0, 0.00000000000000000000e+00) (0, 0, 0.00000000000000000000e+00) (0, 0, 0.00000000000000000000e+00) (0, 0, 0.00000000000000000000e+00) (0, 0, 0.00000000000000000000e+00) (0, 0, 0.00000000000000000000e+00) (0, 0, 0.00000000000000000000e+00) (0, 0, 0.00000000000000000000e+00) (0, 0, 0.00000000000000000000e+00) (9, 4, 5.00000000000000000000e-01) (9, 4, 5.00000000000000000000e-01) (9, 4, 5.00000000000000000000e-01) (9, 4, 5.00000000000000000000e-01) (9, 4, 5.00000000000000000000e-01) (0, 0, 0.00000000000000000000e+00) (6, 4, 5.00000000000000000000e-01) (0, 0, 0.00000000000000000000e+00) 
connections (connected_to_neuron, weight)=(0, -3.54917407035827636719e-01) (1, 1.07563781738281250000e+00) (2, -4.12522375583648681641e-01) (3, 2.35744190216064453125e+00) (4, 2.87714977264404296875e+01) (5, 2.76196804046630859375e+01) (6, -1.62497252225875854492e-01) (7, 1.55521812438964843750e+01) (8, -1.20060882568359375000e+01) (0, 1.00950635969638824463e-01) (1, 1.59184284210205078125e+01) (2, 2.21237030029296875000e+01) (3, 1.65232276916503906250e+01) (4, 1.38412294387817382812e+01) (5, -2.23143503069877624512e-01) (6, 5.62484599649906158447e-02) (7, -6.10568428039550781250e+00) (8, -3.52946162223815917969e+00) (0, 1.50000000000000000000e+03) (1, 4.11105108261108398438e+00) (2, -1.18411328125000000000e+03) (3, -1.49599633789062500000e+03) (4, -5.98521232604980468750e+00) (5, -1.49282006835937500000e+03) (6, 1.66007404327392578125e+01) (7, 1.49171765136718750000e+03) (8, 1.49906433105468750000e+03) (0, 3.15486222505569458008e-01) (1, 8.02428100585937500000e+02) (2, 5.82406473159790039062e+00) (3, 1.50000000000000000000e+03) (4, 1.51345634460449218750e+01) (5, 8.96381950378417968750e+00) (6, 1.46276477050781250000e+03) (7, 2.94836158752441406250e+01) (8, 3.08535289764404296875e+00) (0, 4.21442230224609375000e+02) (1, -4.56879821777343750000e+02) (2, -9.50579711914062500000e+02) (3, -1.50000000000000000000e+03) (4, -1.49234741210937500000e+03) (5, -1.50000000000000000000e+03) (6, 1.28528470993041992188e+01) (7, 9.32988464355468750000e+02) (8, 5.61429382324218750000e+02) (9, -3.72078895568847656250e+00) (10, -5.26228809356689453125e+00) (11, -4.06975173950195312500e+00) (12, 7.09821367263793945312e+00) (13, -6.20033025741577148438e+00) (14, 6.55375432968139648438e+00) 
