FANN_FLO_2.1
num_layers=3
learning_rate=0.700000
connection_rate=1.000000
network_type=0
learning_momentum=0.000000
training_algorithm=2
train_error_function=1
train_stop_function=0
cascade_output_change_fraction=0.010000
quickprop_decay=-0.000100
quickprop_mu=1.750000
rprop_increase_factor=1.200000
rprop_decrease_factor=0.500000
rprop_delta_min=0.000000
rprop_delta_max=50.000000
rprop_delta_zero=0.100000
cascade_output_stagnation_epochs=12
cascade_candidate_change_fraction=0.010000
cascade_candidate_stagnation_epochs=12
cascade_max_out_epochs=150
cascade_min_out_epochs=50
cascade_max_cand_epochs=150
cascade_min_cand_epochs=50
cascade_num_candidate_groups=2
bit_fail_limit=3.49999994039535522461e-01
cascade_candidate_limit=1.00000000000000000000e+03
cascade_weight_multiplier=4.00000005960464477539e-01
cascade_activation_functions_count=10
cascade_activation_functions=3 5 7 8 10 11 14 15 16 17 
cascade_activation_steepnesses_count=4
cascade_activation_steepnesses=2.50000000000000000000e-01 5.00000000000000000000e-01 7.50000000000000000000e-01 1.00000000000000000000e+00 
layer_sizes=9 6 2 
scale_included=0
neurons (num_inputs, activation_function, activation_steepness)=(0, 0, 0.00000000000000000000e+00) (0, 0, 0.00000000000000000000e+00) (0, 0, 0.00000000000000000000e+00) (0, 0, 0.00000000000000000000e+00) (0, 0, 0.00000000000000000000e+00) (0, 0, 0.00000000000000000000e+00) (0, 0, 0.00000000000000000000e+00) (0, 0, 0.00000000000000000000e+00) (0, 0, 0.00000000000000000000e+00) (9, 4, 5.00000000000000000000e-01) (9, 4, 5.00000000000000000000e-01) (9, 4, 5.00000000000000000000e-01) (9, 4, 5.00000000000000000000e-01) (9, 4, 5.00000000000000000000e-01) (0, 0, 0.00000000000000000000e+00) (6, 4, 5.00000000000000000000e-01) (0, 0, 0.00000000000000000000e+00) 
connections (connected_to_neuron, weight)=(0, -6.34595155715942382812e-01) (1, -9.44086837768554687500e+00) (2, -1.62414944171905517578e+00) (3, -2.32676729559898376465e-01) (4, 2.60270118713378906250e+00) (5, 6.78290188312530517578e-01) (6, 1.13693689927458763123e-02) (7, -7.39005804061889648438e+00) (8, 6.06162118911743164062e+00) (0, -7.31914103031158447266e-01) (1, -2.65712976455688476562e+00) (2, 2.30670509338378906250e+01) (3, -8.35022258758544921875e+00) (4, -5.21795921325683593750e+01) (5, 8.57594203948974609375e+00) (6, 1.24727621674537658691e-01) (7, -4.13303184509277343750e+01) (8, 2.06543560028076171875e+01) (0, -1.53490722179412841797e+00) (1, 4.57268357276916503906e-01) (2, 4.45589363574981689453e-01) (3, 1.01043968200683593750e+01) (4, -3.99105110168457031250e+01) (5, -1.15397872924804687500e+01) (6, -1.55400544404983520508e-01) (7, 1.49378814697265625000e+01) (8, 1.32850790023803710938e+01) (0, 1.75325646996498107910e-01) (1, 1.11725044250488281250e+00) (2, 2.66334325075149536133e-01) (3, -1.62267434597015380859e+00) (4, 9.01964783668518066406e-01) (5, -5.60849905014038085938e+00) (6, 1.05928249657154083252e-01) (7, -9.78869533538818359375e+00) (8, 9.17518424987792968750e+00) (0, 1.50000000000000000000e+03) (1, 1.50000000000000000000e+03) (2, -1.50000000000000000000e+03) (3, -1.50000000000000000000e+03) (4, -3.25934553146362304688e+00) (5, 1.50000000000000000000e+03) (6, 1.50000000000000000000e+03) (7, -1.49532238769531250000e+03) (8, 1.50000000000000000000e+03) (9, 1.08403310775756835938e+01) (10, -1.12521085739135742188e+01) (11, 1.16871709823608398438e+01) (12, 1.76061058044433593750e+01) (13, -1.96371960639953613281e+00) (14, -2.20793590545654296875e+01) 
