FANN_FLO_2.1
num_layers=3
learning_rate=0.700000
connection_rate=1.000000
network_type=0
learning_momentum=0.000000
training_algorithm=2
train_error_function=1
train_stop_function=0
cascade_output_change_fraction=0.010000
quickprop_decay=-0.000100
quickprop_mu=1.750000
rprop_increase_factor=1.200000
rprop_decrease_factor=0.500000
rprop_delta_min=0.000000
rprop_delta_max=50.000000
rprop_delta_zero=0.100000
cascade_output_stagnation_epochs=12
cascade_candidate_change_fraction=0.010000
cascade_candidate_stagnation_epochs=12
cascade_max_out_epochs=150
cascade_min_out_epochs=50
cascade_max_cand_epochs=150
cascade_min_cand_epochs=50
cascade_num_candidate_groups=2
bit_fail_limit=3.49999994039535522461e-01
cascade_candidate_limit=1.00000000000000000000e+03
cascade_weight_multiplier=4.00000005960464477539e-01
cascade_activation_functions_count=10
cascade_activation_functions=3 5 7 8 10 11 14 15 16 17 
cascade_activation_steepnesses_count=4
cascade_activation_steepnesses=2.50000000000000000000e-01 5.00000000000000000000e-01 7.50000000000000000000e-01 1.00000000000000000000e+00 
layer_sizes=9 6 2 
scale_included=0
neurons (num_inputs, activation_function, activation_steepness)=(0, 0, 0.00000000000000000000e+00) (0, 0, 0.00000000000000000000e+00) (0, 0, 0.00000000000000000000e+00) (0, 0, 0.00000000000000000000e+00) (0, 0, 0.00000000000000000000e+00) (0, 0, 0.00000000000000000000e+00) (0, 0, 0.00000000000000000000e+00) (0, 0, 0.00000000000000000000e+00) (0, 0, 0.00000000000000000000e+00) (9, 4, 5.00000000000000000000e-01) (9, 4, 5.00000000000000000000e-01) (9, 4, 5.00000000000000000000e-01) (9, 4, 5.00000000000000000000e-01) (9, 4, 5.00000000000000000000e-01) (0, 0, 0.00000000000000000000e+00) (6, 4, 5.00000000000000000000e-01) (0, 0, 0.00000000000000000000e+00) 
connections (connected_to_neuron, weight)=(0, -1.29901754856109619141e+00) (1, -4.42280349731445312500e+01) (2, -5.45094668865203857422e-01) (3, 1.24830312728881835938e+01) (4, -6.45078957080841064453e-01) (5, 1.57568371295928955078e+00) (6, 1.91837236285209655762e-01) (7, -4.57487869262695312500e+00) (8, 3.44931054115295410156e+00) (0, 4.07197743654251098633e-01) (1, 3.19190425872802734375e+01) (2, -5.65039627254009246826e-02) (3, 1.49651721191406250000e+03) (4, 2.72669839859008789062e+00) (5, 1.29192376136779785156e+00) (6, 8.34888219833374023438e-02) (7, -8.48696804046630859375e+00) (8, -6.46984100341796875000e+00) (0, -6.61601543426513671875e-01) (1, -1.50000000000000000000e+03) (2, 7.93108940124511718750e+00) (3, -3.31865005493164062500e+01) (4, 2.96334290504455566406e+00) (5, -7.63849735260009765625e-01) (6, -4.51274365186691284180e-02) (7, -8.55187797546386718750e+00) (8, 8.39923095703125000000e+00) (0, 6.18710696697235107422e-01) (1, 1.50000000000000000000e+03) (2, 4.33524977415800094604e-03) (3, 4.29378509521484375000e+01) (4, -4.18242549896240234375e+00) (5, -9.46452903747558593750e+00) (6, 1.75685539841651916504e-01) (7, -4.68628234863281250000e+01) (8, 1.53457336425781250000e+01) (0, 1.46524902343750000000e+03) (1, -1.50000000000000000000e+03) (2, -3.84713768959045410156e-01) (3, 2.87121391296386718750e+01) (4, 1.00945411682128906250e+02) (5, 5.14873046875000000000e+02) (6, 1.49447596073150634766e+00) (7, 1.34036605834960937500e+02) (8, 1.37028686523437500000e+02) (9, 5.98263311386108398438e+00) (10, -1.73650531768798828125e+01) (11, -7.70476865768432617188e+00) (12, 1.21200046539306640625e+01) (13, -4.94861793518066406250e+00) (14, 4.17641115188598632812e+00) 
