FANN_FLO_2.1
num_layers=3
learning_rate=0.700000
connection_rate=1.000000
network_type=0
learning_momentum=0.000000
training_algorithm=2
train_error_function=1
train_stop_function=0
cascade_output_change_fraction=0.010000
quickprop_decay=-0.000100
quickprop_mu=1.750000
rprop_increase_factor=1.200000
rprop_decrease_factor=0.500000
rprop_delta_min=0.000000
rprop_delta_max=50.000000
rprop_delta_zero=0.100000
cascade_output_stagnation_epochs=12
cascade_candidate_change_fraction=0.010000
cascade_candidate_stagnation_epochs=12
cascade_max_out_epochs=150
cascade_min_out_epochs=50
cascade_max_cand_epochs=150
cascade_min_cand_epochs=50
cascade_num_candidate_groups=2
bit_fail_limit=3.49999994039535522461e-01
cascade_candidate_limit=1.00000000000000000000e+03
cascade_weight_multiplier=4.00000005960464477539e-01
cascade_activation_functions_count=10
cascade_activation_functions=3 5 7 8 10 11 14 15 16 17 
cascade_activation_steepnesses_count=4
cascade_activation_steepnesses=2.50000000000000000000e-01 5.00000000000000000000e-01 7.50000000000000000000e-01 1.00000000000000000000e+00 
layer_sizes=9 6 2 
scale_included=0
neurons (num_inputs, activation_function, activation_steepness)=(0, 0, 0.00000000000000000000e+00) (0, 0, 0.00000000000000000000e+00) (0, 0, 0.00000000000000000000e+00) (0, 0, 0.00000000000000000000e+00) (0, 0, 0.00000000000000000000e+00) (0, 0, 0.00000000000000000000e+00) (0, 0, 0.00000000000000000000e+00) (0, 0, 0.00000000000000000000e+00) (0, 0, 0.00000000000000000000e+00) (9, 4, 5.00000000000000000000e-01) (9, 4, 5.00000000000000000000e-01) (9, 4, 5.00000000000000000000e-01) (9, 4, 5.00000000000000000000e-01) (9, 4, 5.00000000000000000000e-01) (0, 0, 0.00000000000000000000e+00) (6, 4, 5.00000000000000000000e-01) (0, 0, 0.00000000000000000000e+00) 
connections (connected_to_neuron, weight)=(0, 1.50000000000000000000e+03) (1, -9.75538432598114013672e-01) (2, -2.46839008331298828125e+01) (3, -4.61551971435546875000e+02) (4, 4.61953582763671875000e+02) (5, 4.21847229003906250000e+02) (6, 1.14673577249050140381e-01) (7, 1.34168701171875000000e+01) (8, 1.42027778625488281250e+01) (0, 1.50000000000000000000e+03) (1, 1.00402899169921875000e+03) (2, -1.47898144531250000000e+03) (3, -1.49241174316406250000e+03) (4, -1.21395397949218750000e+03) (5, -1.47202465820312500000e+03) (6, 3.29009284973144531250e+01) (7, -1.37291748046875000000e+03) (8, 1.37488330078125000000e+03) (0, 1.15526795387268066406e+00) (1, -1.50000000000000000000e+03) (2, 1.50000000000000000000e+03) (3, 1.98094619750976562500e+02) (4, 1.39918774414062500000e+03) (5, -2.35578002929687500000e+02) (6, 5.58257639408111572266e-01) (7, 3.75087089538574218750e+01) (8, -3.91936492919921875000e+01) (0, 8.84846985340118408203e-01) (1, 6.35500764846801757812e+00) (2, 3.81192970275878906250e+01) (3, 3.53346191406250000000e+02) (4, 1.72958266735076904297e+00) (5, 7.11899566650390625000e+00) (6, 1.95712938904762268066e-01) (7, -1.79832382202148437500e+01) (8, -1.54657163619995117188e+01) (0, 2.97053456306457519531e-01) (1, 2.65954464673995971680e-01) (2, 1.38954246044158935547e+00) (3, -3.51636260747909545898e-01) (4, -2.32705783843994140625e+00) (5, -7.60112822055816650391e-01) (6, 9.92715805768966674805e-02) (7, -8.21187019348144531250e+00) (8, 8.00794315338134765625e+00) (9, -3.93717765808105468750e+00) (10, -5.66567754745483398438e+00) (11, 1.81938338279724121094e+00) (12, -1.09700117111206054688e+01) (13, 1.87595176696777343750e+01) (14, -4.46160221099853515625e+00) 
