FANN_FLO_2.1
num_layers=3
learning_rate=0.700000
connection_rate=1.000000
network_type=0
learning_momentum=0.000000
training_algorithm=2
train_error_function=1
train_stop_function=0
cascade_output_change_fraction=0.010000
quickprop_decay=-0.000100
quickprop_mu=1.750000
rprop_increase_factor=1.200000
rprop_decrease_factor=0.500000
rprop_delta_min=0.000000
rprop_delta_max=50.000000
rprop_delta_zero=0.100000
cascade_output_stagnation_epochs=12
cascade_candidate_change_fraction=0.010000
cascade_candidate_stagnation_epochs=12
cascade_max_out_epochs=150
cascade_min_out_epochs=50
cascade_max_cand_epochs=150
cascade_min_cand_epochs=50
cascade_num_candidate_groups=2
bit_fail_limit=3.49999994039535522461e-01
cascade_candidate_limit=1.00000000000000000000e+03
cascade_weight_multiplier=4.00000005960464477539e-01
cascade_activation_functions_count=10
cascade_activation_functions=3 5 7 8 10 11 14 15 16 17 
cascade_activation_steepnesses_count=4
cascade_activation_steepnesses=2.50000000000000000000e-01 5.00000000000000000000e-01 7.50000000000000000000e-01 1.00000000000000000000e+00 
layer_sizes=9 6 2 
scale_included=0
neurons (num_inputs, activation_function, activation_steepness)=(0, 0, 0.00000000000000000000e+00) (0, 0, 0.00000000000000000000e+00) (0, 0, 0.00000000000000000000e+00) (0, 0, 0.00000000000000000000e+00) (0, 0, 0.00000000000000000000e+00) (0, 0, 0.00000000000000000000e+00) (0, 0, 0.00000000000000000000e+00) (0, 0, 0.00000000000000000000e+00) (0, 0, 0.00000000000000000000e+00) (9, 4, 5.00000000000000000000e-01) (9, 4, 5.00000000000000000000e-01) (9, 4, 5.00000000000000000000e-01) (9, 4, 5.00000000000000000000e-01) (9, 4, 5.00000000000000000000e-01) (0, 0, 0.00000000000000000000e+00) (6, 5, 5.00000000000000000000e-01) (0, 5, 0.00000000000000000000e+00) 
connections (connected_to_neuron, weight)=(0, 7.95576751232147216797e-01) (1, -1.50000000000000000000e+03) (2, -1.34929161071777343750e+01) (3, 1.73585164546966552734e+00) (4, -8.58107030391693115234e-01) (5, 6.54322280883789062500e+01) (6, 1.52438789606094360352e-01) (7, -1.23756561279296875000e+01) (8, 1.06412887573242187500e+01) (0, -1.02031660079956054688e+01) (1, 3.87908308766782283783e-03) (2, -6.96639204025268554688e+00) (3, 3.28583931922912597656e+00) (4, -1.94595873355865478516e-01) (5, 1.39480571746826171875e+01) (6, 3.68785887956619262695e-01) (7, -1.18386030197143554688e+01) (8, 1.84314966201782226562e+00) (0, -7.21052217483520507812e+00) (1, -1.92657262086868286133e-02) (2, -1.20852541923522949219e+00) (3, 4.41000986099243164062e+00) (4, 5.53004741668701171875e-01) (5, -2.67018070220947265625e+01) (6, 9.23604294657707214355e-02) (7, -9.54572296142578125000e+00) (8, 7.70319938659667968750e+00) (0, 8.09057807922363281250e+00) (1, 5.72391688823699951172e-01) (2, 2.18995451927185058594e+00) (3, -1.41500842571258544922e+00) (4, 6.28202438354492187500e-01) (5, 1.50000000000000000000e+03) (6, -6.21306419372558593750e-01) (7, 5.09947433471679687500e+01) (8, -1.64803481101989746094e+00) (0, -2.26442456245422363281e+00) (1, 1.26103401184082031250e+00) (2, -5.44332981109619140625e-01) (3, 5.11475801467895507812e-02) (4, -8.69831070303916931152e-03) (5, -1.21628780364990234375e+01) (6, -8.88872519135475158691e-02) (7, 1.23958520889282226562e+01) (8, 1.06944665908813476562e+01) (9, 1.70984327793121337891e+00) (10, -4.50882911682128906250e-01) (11, 5.19629478454589843750e-01) (12, 4.77411776781082153320e-01) (13, 1.30396723747253417969e+00) (14, -1.83879280090332031250e+00) 
