FANN_FLO_2.1
num_layers=3
learning_rate=0.700000
connection_rate=1.000000
network_type=0
learning_momentum=0.000000
training_algorithm=2
train_error_function=1
train_stop_function=0
cascade_output_change_fraction=0.010000
quickprop_decay=-0.000100
quickprop_mu=1.750000
rprop_increase_factor=1.200000
rprop_decrease_factor=0.500000
rprop_delta_min=0.000000
rprop_delta_max=50.000000
rprop_delta_zero=0.100000
cascade_output_stagnation_epochs=12
cascade_candidate_change_fraction=0.010000
cascade_candidate_stagnation_epochs=12
cascade_max_out_epochs=150
cascade_min_out_epochs=50
cascade_max_cand_epochs=150
cascade_min_cand_epochs=50
cascade_num_candidate_groups=2
bit_fail_limit=3.49999994039535522461e-01
cascade_candidate_limit=1.00000000000000000000e+03
cascade_weight_multiplier=4.00000005960464477539e-01
cascade_activation_functions_count=10
cascade_activation_functions=3 5 7 8 10 11 14 15 16 17 
cascade_activation_steepnesses_count=4
cascade_activation_steepnesses=2.50000000000000000000e-01 5.00000000000000000000e-01 7.50000000000000000000e-01 1.00000000000000000000e+00 
layer_sizes=9 6 2 
scale_included=0
neurons (num_inputs, activation_function, activation_steepness)=(0, 0, 0.00000000000000000000e+00) (0, 0, 0.00000000000000000000e+00) (0, 0, 0.00000000000000000000e+00) (0, 0, 0.00000000000000000000e+00) (0, 0, 0.00000000000000000000e+00) (0, 0, 0.00000000000000000000e+00) (0, 0, 0.00000000000000000000e+00) (0, 0, 0.00000000000000000000e+00) (0, 0, 0.00000000000000000000e+00) (9, 4, 5.00000000000000000000e-01) (9, 4, 5.00000000000000000000e-01) (9, 4, 5.00000000000000000000e-01) (9, 4, 5.00000000000000000000e-01) (9, 4, 5.00000000000000000000e-01) (0, 0, 0.00000000000000000000e+00) (6, 5, 5.00000000000000000000e-01) (0, 5, 0.00000000000000000000e+00) 
connections (connected_to_neuron, weight)=(0, -3.99775117635726928711e-01) (1, 4.04685437679290771484e-01) (2, -2.30536708831787109375e+01) (3, -1.98841915130615234375e+01) (4, 1.00930774211883544922e+00) (5, -1.14901709556579589844e+00) (6, -7.28356093168258666992e-02) (7, 7.22345447540283203125e+00) (8, 5.22671461105346679688e+00) (0, 1.45942687988281250000e+00) (1, -9.01623077392578125000e+01) (2, 4.05857849121093750000e+00) (3, 2.18553409576416015625e+01) (4, -3.81207752227783203125e+00) (5, -2.13251705169677734375e+01) (6, 3.34555357694625854492e-01) (7, 9.29494094848632812500e+00) (8, -1.32907590866088867188e+01) (0, 1.12618198394775390625e+01) (1, -6.83152236938476562500e+01) (2, 6.82015686035156250000e+01) (3, 2.28966236114501953125e+01) (4, -1.41342997550964355469e+00) (5, -8.28893566131591796875e+00) (6, 1.01158237457275390625e+00) (7, 4.32761669158935546875e+00) (8, -8.23816204071044921875e+00) (0, -1.47888488769531250000e+03) (1, -1.45082897949218750000e+03) (2, 1.44596618652343750000e+03) (3, 1.46194409179687500000e+03) (4, 1.44484594726562500000e+03) (5, 1.44480700683593750000e+03) (6, 8.46552029252052307129e-02) (7, -1.45664184570312500000e+03) (8, 5.86863803863525390625e+00) (0, -5.15278442382812500000e+02) (1, 3.02970552444458007812e+00) (2, 2.84781455993652343750e-01) (3, 2.82639217376708984375e+00) (4, -3.59169626235961914062e+00) (5, -8.79586264491081237793e-02) (6, -4.28904034197330474854e-02) (7, -6.24042844772338867188e+00) (8, -8.68565940856933593750e+00) (9, 3.39027690887451171875e+00) (10, 6.38665676116943359375e-01) (11, 9.13895845413208007812e-01) (12, 2.12734222412109375000e+00) (13, 6.15763664245605468750e+00) (14, -3.14278364181518554688e+00) 
