FANN_FLO_2.1
num_layers=3
learning_rate=0.700000
connection_rate=1.000000
network_type=0
learning_momentum=0.000000
training_algorithm=2
train_error_function=1
train_stop_function=0
cascade_output_change_fraction=0.010000
quickprop_decay=-0.000100
quickprop_mu=1.750000
rprop_increase_factor=1.200000
rprop_decrease_factor=0.500000
rprop_delta_min=0.000000
rprop_delta_max=50.000000
rprop_delta_zero=0.100000
cascade_output_stagnation_epochs=12
cascade_candidate_change_fraction=0.010000
cascade_candidate_stagnation_epochs=12
cascade_max_out_epochs=150
cascade_min_out_epochs=50
cascade_max_cand_epochs=150
cascade_min_cand_epochs=50
cascade_num_candidate_groups=2
bit_fail_limit=3.49999994039535522461e-01
cascade_candidate_limit=1.00000000000000000000e+03
cascade_weight_multiplier=4.00000005960464477539e-01
cascade_activation_functions_count=10
cascade_activation_functions=3 5 7 8 10 11 14 15 16 17 
cascade_activation_steepnesses_count=4
cascade_activation_steepnesses=2.50000000000000000000e-01 5.00000000000000000000e-01 7.50000000000000000000e-01 1.00000000000000000000e+00 
layer_sizes=9 21 2 
scale_included=0
neurons (num_inputs, activation_function, activation_steepness)=(0, 0, 0.00000000000000000000e+00) (0, 0, 0.00000000000000000000e+00) (0, 0, 0.00000000000000000000e+00) (0, 0, 0.00000000000000000000e+00) (0, 0, 0.00000000000000000000e+00) (0, 0, 0.00000000000000000000e+00) (0, 0, 0.00000000000000000000e+00) (0, 0, 0.00000000000000000000e+00) (0, 0, 0.00000000000000000000e+00) (9, 4, 5.00000000000000000000e-01) (9, 4, 5.00000000000000000000e-01) (9, 4, 5.00000000000000000000e-01) (9, 4, 5.00000000000000000000e-01) (9, 4, 5.00000000000000000000e-01) (9, 4, 5.00000000000000000000e-01) (9, 4, 5.00000000000000000000e-01) (9, 4, 5.00000000000000000000e-01) (9, 4, 5.00000000000000000000e-01) (9, 4, 5.00000000000000000000e-01) (9, 4, 5.00000000000000000000e-01) (9, 4, 5.00000000000000000000e-01) (9, 4, 5.00000000000000000000e-01) (9, 4, 5.00000000000000000000e-01) (9, 4, 5.00000000000000000000e-01) (9, 4, 5.00000000000000000000e-01) (9, 4, 5.00000000000000000000e-01) (9, 4, 5.00000000000000000000e-01) (9, 4, 5.00000000000000000000e-01) (9, 4, 5.00000000000000000000e-01) (0, 0, 0.00000000000000000000e+00) (21, 5, 5.00000000000000000000e-01) (0, 5, 0.00000000000000000000e+00) 
connections (connected_to_neuron, weight)=(0, 1.50000000000000000000e+03) (1, 2.08521366119384765625e+01) (2, 6.84528493881225585938e+00) (3, 1.68731546401977539062e+00) (4, -3.03410482406616210938e+00) (5, -1.10132887959480285645e-01) (6, 5.79686462879180908203e-01) (7, 3.86958479881286621094e+00) (8, -6.48454502224922180176e-02) (0, 1.50000000000000000000e+03) (1, 1.59300251007080078125e+01) (2, 5.29937858581542968750e+01) (3, 3.38790817260742187500e+01) (4, -1.61078310012817382812e+00) (5, 1.57692804932594299316e-01) (6, 8.70728194713592529297e-01) (7, 1.31417226791381835938e+01) (8, -2.99594974517822265625e+00) (0, -1.50000000000000000000e+03) (1, -2.50024566650390625000e+01) (2, 1.16042890548706054688e+01) (3, 5.91621100902557373047e-01) (4, 8.85932028293609619141e-01) (5, -1.31488752365112304688e+00) (6, 9.25179868936538696289e-02) (7, -1.47694738769531250000e+03) (8, 5.75441074371337890625e+00) (0, -1.49651794433593750000e+03) (1, 1.49625073242187500000e+03) (2, -1.50000000000000000000e+03) (3, -1.55892515182495117188e+01) (4, -7.79364013671875000000e+00) (5, 2.65696144104003906250e+00) (6, -3.22126969695091247559e-02) (7, 3.39922189712524414062e+00) (8, -1.56914329528808593750e+00) (0, -1.13372631835937500000e+03) (1, -1.75830860137939453125e+01) (2, -1.38490661978721618652e-01) (3, 2.60314434766769409180e-01) (4, -6.42944037914276123047e-01) (5, 6.36051368713378906250e+00) (6, 1.25927165150642395020e-01) (7, -7.94977569580078125000e+00) (8, 8.82209587097167968750e+00) (0, 3.40934723615646362305e-01) (1, -1.30255055427551269531e+00) (2, -5.04024863243103027344e-01) (3, 2.01980676501989364624e-02) (4, -1.84496045112609863281e+00) (5, -4.55717742443084716797e-03) (6, 1.37083724141120910645e-01) (7, -1.34523811340332031250e+01) (8, 9.94123935699462890625e+00) (0, 1.23101584613323211670e-01) (1, -2.11167259216308593750e+01) (2, -1.50000000000000000000e+03) (3, -3.25350303649902343750e+01) (4, -2.29695153236389160156e+00) (5, -9.95840489864349365234e-01) (6, 1.18230390548706054688e+00) (7, 6.08974170684814453125e+00) (8, -1.15592231750488281250e+01) (0, -8.81920288085937500000e+02) (1, -4.80059623718261718750e+00) (2, -4.81555271148681640625e+00) (3, -2.22217512130737304688e+00) (4, 2.37252926826477050781e+00) (5, -1.87066135406494140625e+01) (6, 7.74743258953094482422e-02) (7, -8.50153541564941406250e+00) (8, 4.57923412322998046875e+00) (0, -3.77708673477172851562e-01) (1, 2.38699412345886230469e+00) (2, 3.86126747131347656250e+01) (3, 1.21849322319030761719e+00) (4, -1.36940765380859375000e+00) (5, -1.52106738090515136719e+00) (6, 6.63921654224395751953e-01) (7, -1.44231882095336914062e+01) (8, -1.05568199157714843750e+01) (0, 8.69590950012207031250e+00) (1, -6.60796213150024414062e+00) (2, -2.93127894401550292969e+00) (3, -3.29551869072020053864e-03) (4, -5.56704282760620117188e-01) (5, -6.25444948673248291016e-01) (6, 6.00161077454686164856e-03) (7, 4.89943552017211914062e+00) (8, -5.23548984527587890625e+00) (0, -1.21632516384124755859e+00) (1, -9.58388507366180419922e-01) (2, -3.85616809129714965820e-01) (3, 8.98991525173187255859e-02) (4, -2.09618061780929565430e-01) (5, -9.58902716636657714844e-01) (6, 9.45482030510902404785e-02) (7, -8.00904655456542968750e+00) (8, -5.99617385864257812500e+00) (0, 1.50000000000000000000e+03) (1, 1.43045091629028320312e+00) (2, -6.91551327705383300781e-01) (3, -1.34843754768371582031e+00) (4, -5.09869670867919921875e+00) (5, -9.76601719856262207031e-01) (6, 1.44436825066804885864e-02) (7, 1.61258590221405029297e+00) (8, 9.10312652587890625000e-01) (0, -3.40234220027923583984e-01) (1, -2.03742923736572265625e+01) (2, -1.50000000000000000000e+03) (3, -1.79530010223388671875e+01) (4, -1.85367071628570556641e+00) (5, -2.47018432617187500000e+00) (6, 6.12236261367797851562e-01) (7, 5.65768480300903320312e+00) (8, -1.00062084197998046875e+01) (0, -1.39702697753906250000e+03) (1, 1.50000000000000000000e+03) (2, -1.50000000000000000000e+03) (3, -8.15965194702148437500e+01) (4, -4.56131744384765625000e+01) (5, 1.30753116607666015625e+01) (6, 1.79001407623291015625e+01) (7, -2.46484816074371337891e-01) (8, -6.94098997116088867188e+00) (0, 5.56741046905517578125e+00) (1, 2.66557579040527343750e+01) (2, 4.80631561279296875000e+01) (3, 5.70262670516967773438e+00) (4, 3.73346865177154541016e-01) (5, 1.99632033705711364746e-01) (6, 1.56313538551330566406e+00) (7, -2.73636674880981445312e+00) (8, -5.75521278381347656250e+00) (0, 7.24716854095458984375e+00) (1, 5.36965370178222656250e-01) (2, -1.24537763595581054688e+01) (3, 5.72661638259887695312e+00) (4, 2.54119663238525390625e+01) (5, 1.46790275573730468750e+01) (6, -2.03615501523017883301e-01) (7, 3.86248898506164550781e+00) (8, -2.90352916717529296875e+00) (0, 7.52711391448974609375e+00) (1, -9.15599822998046875000e+00) (2, 7.31891679763793945312e+00) (3, -2.23881721496582031250e+00) (4, 2.82881641387939453125e+00) (5, -2.88991022109985351562e+00) (6, -2.41798870265483856201e-02) (7, 1.65648365020751953125e+01) (8, -6.68421924114227294922e-01) (0, -7.53237009048461914062e+00) (1, -4.49496078491210937500e+00) (2, -1.50000000000000000000e+03) (3, -1.26122844219207763672e+00) (4, -7.67869234085083007812e+00) (5, -4.17564725875854492188e+00) (6, 1.12368494272232055664e-01) (7, 6.05683183670043945312e+00) (8, -3.82915163040161132812e+00) (0, 1.50000000000000000000e+03) (1, 3.70046043395996093750e+01) (2, 1.50000000000000000000e+03) (3, 4.85656280517578125000e+01) (4, 1.50074853897094726562e+01) (5, 9.32708904147148132324e-02) (6, 9.11105453968048095703e-01) (7, 1.55336272716522216797e+00) (8, 2.27149314880371093750e+01) (0, -2.15504455566406250000e+00) (1, -1.13683938980102539062e+01) (2, -1.50000000000000000000e+03) (3, -9.87230110168457031250e+00) (4, 2.86282229423522949219e+00) (5, -4.28548240661621093750e+00) (6, -9.22627300024032592773e-02) (7, 1.11244993209838867188e+01) (8, 5.42523384094238281250e+00) (9, -5.49381613731384277344e-01) (10, -5.23784101009368896484e-01) (11, 2.33994221687316894531e+00) (12, 6.60434126853942871094e-01) (13, 9.02683794498443603516e-01) (14, 3.38945007324218750000e+00) (15, 4.32023495435714721680e-01) (16, 9.31916892528533935547e-01) (17, -1.93982315063476562500e+00) (18, 4.14059972763061523438e+00) (19, -4.43153429031372070312e+00) (20, -2.36469721794128417969e+00) (21, 6.42589151859283447266e-01) (22, 2.19438388943672180176e-01) (23, 9.03729498386383056641e-01) (24, -1.13724744319915771484e+00) (25, 4.02880519628524780273e-01) (26, 6.53422355651855468750e-01) (27, -6.73211574554443359375e-01) (28, 1.08378398418426513672e+00) (29, -4.83610481023788452148e-01) 
