FANN_FLO_2.1
num_layers=3
learning_rate=0.700000
connection_rate=1.000000
network_type=0
learning_momentum=0.000000
training_algorithm=2
train_error_function=1
train_stop_function=0
cascade_output_change_fraction=0.010000
quickprop_decay=-0.000100
quickprop_mu=1.750000
rprop_increase_factor=1.200000
rprop_decrease_factor=0.500000
rprop_delta_min=0.000000
rprop_delta_max=50.000000
rprop_delta_zero=0.100000
cascade_output_stagnation_epochs=12
cascade_candidate_change_fraction=0.010000
cascade_candidate_stagnation_epochs=12
cascade_max_out_epochs=150
cascade_min_out_epochs=50
cascade_max_cand_epochs=150
cascade_min_cand_epochs=50
cascade_num_candidate_groups=2
bit_fail_limit=3.49999994039535522461e-01
cascade_candidate_limit=1.00000000000000000000e+03
cascade_weight_multiplier=4.00000005960464477539e-01
cascade_activation_functions_count=10
cascade_activation_functions=3 5 7 8 10 11 14 15 16 17 
cascade_activation_steepnesses_count=4
cascade_activation_steepnesses=2.50000000000000000000e-01 5.00000000000000000000e-01 7.50000000000000000000e-01 1.00000000000000000000e+00 
layer_sizes=9 21 2 
scale_included=0
neurons (num_inputs, activation_function, activation_steepness)=(0, 0, 0.00000000000000000000e+00) (0, 0, 0.00000000000000000000e+00) (0, 0, 0.00000000000000000000e+00) (0, 0, 0.00000000000000000000e+00) (0, 0, 0.00000000000000000000e+00) (0, 0, 0.00000000000000000000e+00) (0, 0, 0.00000000000000000000e+00) (0, 0, 0.00000000000000000000e+00) (0, 0, 0.00000000000000000000e+00) (9, 4, 5.00000000000000000000e-01) (9, 4, 5.00000000000000000000e-01) (9, 4, 5.00000000000000000000e-01) (9, 4, 5.00000000000000000000e-01) (9, 4, 5.00000000000000000000e-01) (9, 4, 5.00000000000000000000e-01) (9, 4, 5.00000000000000000000e-01) (9, 4, 5.00000000000000000000e-01) (9, 4, 5.00000000000000000000e-01) (9, 4, 5.00000000000000000000e-01) (9, 4, 5.00000000000000000000e-01) (9, 4, 5.00000000000000000000e-01) (9, 4, 5.00000000000000000000e-01) (9, 4, 5.00000000000000000000e-01) (9, 4, 5.00000000000000000000e-01) (9, 4, 5.00000000000000000000e-01) (9, 4, 5.00000000000000000000e-01) (9, 4, 5.00000000000000000000e-01) (9, 4, 5.00000000000000000000e-01) (9, 4, 5.00000000000000000000e-01) (0, 0, 0.00000000000000000000e+00) (21, 5, 5.00000000000000000000e-01) (0, 5, 0.00000000000000000000e+00) 
connections (connected_to_neuron, weight)=(0, -4.15394248962402343750e+01) (1, 1.50000000000000000000e+03) (2, -1.49360740184783935547e+00) (3, -1.14617633819580078125e+01) (4, -4.22184258699417114258e-01) (5, 8.82388458251953125000e+01) (6, -2.89823472499847412109e-01) (7, 8.86346027255058288574e-02) (8, -1.24821352958679199219e+00) (0, -3.28400192260742187500e+01) (1, 1.50000000000000000000e+03) (2, -5.28280794620513916016e-01) (3, -1.54518041610717773438e+01) (4, -1.11920461058616638184e-02) (5, 1.14922857284545898438e+00) (6, -2.22671911120414733887e-01) (7, 1.23413324356079101562e-01) (8, -1.77742052078247070312e+00) (0, -3.92301726341247558594e+00) (1, 1.50000000000000000000e+03) (2, -1.47563562011718750000e+03) (3, -1.53291702270507812500e+00) (4, -9.18999016284942626953e-01) (5, -1.55918521881103515625e+01) (6, 2.06255540251731872559e-01) (7, 2.60814118385314941406e+00) (8, -1.32291603088378906250e+00) (0, -3.56306761503219604492e-01) (1, -4.28328933715820312500e+01) (2, 1.35352957248687744141e+00) (3, 3.96403372287750244141e-01) (4, -2.80089378356933593750e+00) (5, -4.42096853256225585938e+00) (6, 1.68255627155303955078e-01) (7, -1.36238422393798828125e+01) (8, 1.22452144622802734375e+01) (0, -3.60670013427734375000e+02) (1, 1.50000000000000000000e+03) (2, -2.82929182052612304688e+00) (3, -7.68294191360473632812e+00) (4, 6.09619092941284179688e+00) (5, 9.85073184967041015625e+00) (6, 1.45999658203125000000e+03) (7, 2.15113019943237304688e+00) (8, -1.16104769706726074219e+00) (0, 8.23078975081443786621e-02) (1, 5.70377635955810546875e+00) (2, 1.50000000000000000000e+03) (3, 6.30656555294990539551e-02) (4, -6.90683573484420776367e-02) (5, 2.06468909978866577148e-01) (6, 7.76230022311210632324e-02) (7, -9.02630710601806640625e+00) (8, -5.12010622024536132812e+00) (0, 1.51017446517944335938e+01) (1, 1.50000000000000000000e+03) (2, 9.62243938446044921875e+00) (3, -1.29021716308593750000e+03) (4, -3.56965351104736328125e+00) (5, 3.29188871383666992188e+00) (6, 2.91056744754314422607e-02) (7, -1.32972202301025390625e+01) (8, -3.07061100006103515625e+00) (0, 6.66856933593750000000e+02) (1, -2.89252319335937500000e+01) (2, -6.65962696075439453125e-01) (3, -1.37614464759826660156e+00) (4, -2.60931801795959472656e+00) (5, -3.63097572326660156250e+01) (6, 3.46314936876296997070e-01) (7, 8.45950022339820861816e-02) (8, 3.23431921005249023438e+00) (0, -5.53261756896972656250e+01) (1, -1.17351140975952148438e+01) (2, 7.20687627792358398438e-01) (3, 2.10514008998870849609e-01) (4, -1.61660051345825195312e+00) (5, -2.60274934768676757812e+00) (6, 1.53562515974044799805e-01) (7, -1.43437070846557617188e+01) (8, 1.12897386550903320312e+01) (0, 3.35740142822265625000e+02) (1, -1.48499438476562500000e+03) (2, 1.50000000000000000000e+03) (3, -2.36201739311218261719e+00) (4, -1.41588628292083740234e+00) (5, 1.14985742568969726562e+01) (6, -7.95002728700637817383e-02) (7, 3.18755125999450683594e+00) (8, -2.99006438255310058594e+00) (0, -2.63262104988098144531e+00) (1, 1.50000000000000000000e+03) (2, -1.53629982471466064453e+00) (3, -4.33775043487548828125e+00) (4, 6.33450174331665039062e+00) (5, 9.77357387542724609375e+00) (6, 1.45999658203125000000e+03) (7, 1.93075597286224365234e+00) (8, -2.11981987953186035156e+00) (0, 2.34696521759033203125e+01) (1, 1.50000000000000000000e+03) (2, 7.74411392211914062500e+00) (3, -1.96824979782104492188e+00) (4, 3.76405239105224609375e+00) (5, -7.49126052856445312500e+00) (6, 2.14201919734477996826e-02) (7, -1.07435445785522460938e+01) (8, -2.66181063652038574219e+00) (0, -1.70640830993652343750e+01) (1, 3.88635215759277343750e+01) (2, 1.75716042518615722656e+00) (3, -4.19809401035308837891e-01) (4, -1.98014318943023681641e-01) (5, 8.96648585796356201172e-01) (6, 1.64097353816032409668e-01) (7, -1.34855346679687500000e+01) (8, -1.23391256332397460938e+01) (0, 2.96486511230468750000e+01) (1, 1.50000000000000000000e+03) (2, -1.50000000000000000000e+03) (3, 4.21649217605590820312e-01) (4, 2.56083869934082031250e+00) (5, 2.09801406860351562500e+01) (6, 1.16045176982879638672e-01) (7, 2.19162841796875000000e+02) (8, 6.19174528121948242188e+00) (0, 4.96858215332031250000e+01) (1, 9.55270671844482421875e+00) (2, 7.83561277389526367188e+00) (3, -1.60290718078613281250e+01) (4, -5.02230525016784667969e-01) (5, -1.26763474941253662109e+00) (6, -1.96445062756538391113e-01) (7, -4.58163309097290039062e+00) (8, -4.95631885528564453125e+00) (0, -1.72584857940673828125e+01) (1, 2.13690547943115234375e+01) (2, -1.02191295623779296875e+01) (3, -2.84044685363769531250e+01) (4, -4.92668002843856811523e-01) (5, -1.05407810211181640625e+00) (6, -7.06880763173103332520e-02) (7, -1.16944780349731445312e+01) (8, 8.02690505981445312500e+00) (0, -4.32333517074584960938e+00) (1, 1.50000000000000000000e+03) (2, 4.80028390884399414062e+00) (3, -6.82247519493103027344e-01) (4, -5.83856153488159179688e+00) (5, -6.64023876190185546875e-01) (6, -6.18834281340241432190e-04) (7, -3.41828203201293945312e+00) (8, -3.62285351753234863281e+00) (0, -8.37909793853759765625e+00) (1, 1.50000000000000000000e+03) (2, 4.70221996307373046875e+00) (3, -4.15792793035507202148e-01) (4, -3.51875185966491699219e+00) (5, -1.64742577075958251953e+00) (6, -2.67508644610643386841e-02) (7, -2.92129778861999511719e+00) (8, -3.63453674316406250000e+00) (0, 1.24885864257812500000e+03) (1, 1.69309902191162109375e+01) (2, -5.50964784622192382812e+00) (3, 5.47976446151733398438e+00) (4, -1.37732160091400146484e+00) (5, 3.93503856658935546875e+00) (6, 4.70849610865116119385e-02) (7, 1.38133811950683593750e+01) (8, -1.50737214088439941406e+00) (0, -1.21964626312255859375e+01) (1, 7.59556884765625000000e+01) (2, -2.44371986389160156250e+01) (3, 1.42428719997406005859e+00) (4, 7.82987534999847412109e-01) (5, 2.38849544525146484375e+00) (6, 9.47781950235366821289e-02) (7, -3.53697547912597656250e+01) (8, -6.20049858093261718750e+00) (9, 8.13245177268981933594e-02) (10, 7.06124186515808105469e-01) (11, 5.91279089450836181641e-01) (12, 2.10102581977844238281e+00) (13, 2.40433774888515472412e-02) (14, -2.99013185501098632812e+00) (15, 2.46475964784622192383e-01) (16, -8.64917278289794921875e-01) (17, 2.94530749320983886719e+00) (18, -4.77086633443832397461e-01) (19, 3.77090007066726684570e-01) (20, 1.00224590301513671875e+00) (21, -1.39849698543548583984e+00) (22, 1.30803906917572021484e+00) (23, 3.59763503074645996094e-01) (24, -4.44791197776794433594e-01) (25, 8.64603519439697265625e-01) (26, 8.11871886253356933594e-01) (27, -8.29921424388885498047e-01) (28, -1.29440987110137939453e+00) (29, -7.64959096908569335938e-01) 
