FANN_FLO_2.1
num_layers=3
learning_rate=0.700000
connection_rate=1.000000
network_type=0
learning_momentum=0.000000
training_algorithm=2
train_error_function=1
train_stop_function=0
cascade_output_change_fraction=0.010000
quickprop_decay=-0.000100
quickprop_mu=1.750000
rprop_increase_factor=1.200000
rprop_decrease_factor=0.500000
rprop_delta_min=0.000000
rprop_delta_max=50.000000
rprop_delta_zero=0.100000
cascade_output_stagnation_epochs=12
cascade_candidate_change_fraction=0.010000
cascade_candidate_stagnation_epochs=12
cascade_max_out_epochs=150
cascade_min_out_epochs=50
cascade_max_cand_epochs=150
cascade_min_cand_epochs=50
cascade_num_candidate_groups=2
bit_fail_limit=3.49999994039535522461e-01
cascade_candidate_limit=1.00000000000000000000e+03
cascade_weight_multiplier=4.00000005960464477539e-01
cascade_activation_functions_count=10
cascade_activation_functions=3 5 7 8 10 11 14 15 16 17 
cascade_activation_steepnesses_count=4
cascade_activation_steepnesses=2.50000000000000000000e-01 5.00000000000000000000e-01 7.50000000000000000000e-01 1.00000000000000000000e+00 
layer_sizes=9 6 2 
scale_included=0
neurons (num_inputs, activation_function, activation_steepness)=(0, 0, 0.00000000000000000000e+00) (0, 0, 0.00000000000000000000e+00) (0, 0, 0.00000000000000000000e+00) (0, 0, 0.00000000000000000000e+00) (0, 0, 0.00000000000000000000e+00) (0, 0, 0.00000000000000000000e+00) (0, 0, 0.00000000000000000000e+00) (0, 0, 0.00000000000000000000e+00) (0, 0, 0.00000000000000000000e+00) (9, 4, 5.00000000000000000000e-01) (9, 4, 5.00000000000000000000e-01) (9, 4, 5.00000000000000000000e-01) (9, 4, 5.00000000000000000000e-01) (9, 4, 5.00000000000000000000e-01) (0, 0, 0.00000000000000000000e+00) (6, 5, 5.00000000000000000000e-01) (0, 5, 0.00000000000000000000e+00) 
connections (connected_to_neuron, weight)=(0, 8.37036895751953125000e+00) (1, 2.20783259719610214233e-02) (2, -1.96276168823242187500e+01) (3, -6.14510679244995117188e+00) (4, 7.63787552714347839355e-02) (5, -1.47369628906250000000e+03) (6, 1.60358924865722656250e+01) (7, -1.15073938369750976562e+01) (8, 1.40643463134765625000e+01) (0, 9.95154666900634765625e+00) (1, -4.67722415924072265625e-02) (2, -2.15998959541320800781e+00) (3, -1.03485572338104248047e+00) (4, 5.91856427490711212158e-02) (5, -4.93884658813476562500e+01) (6, 1.31397113204002380371e-01) (7, -1.28420925140380859375e+01) (8, 1.13326854705810546875e+01) (0, -1.50000000000000000000e+03) (1, -1.50000000000000000000e+03) (2, 1.50000000000000000000e+03) (3, -5.27045654296875000000e+02) (4, -1.50000000000000000000e+03) (5, -1.49974475097656250000e+03) (6, -1.50000000000000000000e+03) (7, -1.50000000000000000000e+03) (8, 5.29344848632812500000e+02) (0, -1.31920254230499267578e+00) (1, -4.46108698844909667969e-01) (2, 1.06628596782684326172e+00) (3, -2.72205853462219238281e+00) (4, -6.30167365074157714844e-01) (5, -1.09832060337066650391e+00) (6, -8.35301429033279418945e-02) (7, 7.85946655273437500000e+00) (8, 6.71766424179077148438e+00) (0, 1.49949963378906250000e+03) (1, 1.50000000000000000000e+03) (2, -1.50000000000000000000e+03) (3, 2.95443367958068847656e+00) (4, 1.50000000000000000000e+03) (5, 1.50000000000000000000e+03) (6, 2.63192474842071533203e-01) (7, -2.12834873199462890625e+01) (8, 1.98099575042724609375e+01) (9, -4.37921881675720214844e-01) (10, 6.29494965076446533203e-01) (11, -1.88463434576988220215e-01) (12, 1.40603804588317871094e+00) (13, 1.20818173885345458984e+00) (14, -1.38618934154510498047e+00) 
